digraph Tree {
node [shape=box] ;
0 [label="CustServ Calls <= 3.5\ngini = 0.32\nsamples = 2387\nvalue = [1910, 477]\nclass = True"] ;
1 [label="Day Mins <= 244.9\ngini = 0.258\nsamples = 2152\nvalue = [1825, 327]\nclass = True"] ;
0 -> 1 [labeldistance=2.5, labelangle=45, headlabel="True"] ;
3 [label="gini = 0.167\nsamples = 1870\nvalue = [1698, 172]\nclass = True"] ;
1 -> 3 ;
4 [label="Eve Mins <= 180.3\ngini = 0.495\nsamples = 282\nvalue = [127, 155]\nclass = False"] ;
1 -> 4 ;
5 [label="gini = 0.236\nsamples = 73\nvalue = [63, 10]\nclass = True"] ;
4 -> 5 ;
6 [label="VMail Message <= 5.5\ngini = 0.425\nsamples = 209\nvalue = [64, 145]\nclass = False"] ;
4 -> 6 ;
7 [label="gini = 0.267\nsamples = 164\nvalue = [26, 138]\nclass = False"] ;
6 -> 7 ;
8 [label="gini = 0.263\nsamples = 45\nvalue = [38, 7]\nclass = True"] ;
6 -> 8 ;
2 [label="gini = 0.462\nsamples = 235\nvalue = [85, 150]\nclass = False"] ;
0 -> 2 [labeldistance=2.5, labelangle=-45, headlabel="False"] ;
}